<?xml version="1.0"?>
<opencv_storage>
<cascade>
  <stageType>BOOST</stageType>
  <featureType>HAAR</featureType>
  <height>55</height>
  <width>25</width>
  <stageParams>
    <boostType>GAB</boostType>
    <minHitRate>9.9900001287460327e-01</minHitRate>
    <maxFalseAlarm>5.0000000000000000e-01</maxFalseAlarm>
    <weightTrimRate>9.4999999999999996e-01</weightTrimRate>
    <maxDepth>1</maxDepth>
    <maxWeakCount>100</maxWeakCount></stageParams>
  <featureParams>
    <maxCatCount>0</maxCatCount>
    <featSize>1</featSize>
    <mode>ALL</mode></featureParams>
  <stageNum>7</stageNum>
  <stages>
    <!-- stage 0 -->
    <_>
      <maxWeakCount>2</maxWeakCount>
      <stageThreshold>-1.1995788663625717e-01</stageThreshold>
      <weakClassifiers>
        <_>
          <internalNodes>
            0 -1 21 1.1948877945542336e-02</internalNodes>
          <leafValues>
            -9.9651569128036499e-01 9.4736844301223755e-01</leafValues></_>
        <_>
          <internalNodes>
            0 -1 16 2.8469994664192200e-02</internalNodes>
          <leafValues>
            -9.7307437658309937e-01 8.7655776739120483e-01</leafValues></_></weakClassifiers></_>
    <!-- stage 1 -->
    <_>
      <maxWeakCount>3</maxWeakCount>
      <stageThreshold>-1.1837724447250366e+00</stageThreshold>
      <weakClassifiers>
        <_>
          <internalNodes>
            0 -1 1 -2.7446222305297852e-01</internalNodes>
          <leafValues>
            8.6024552583694458e-01 -9.4454711675643921e-01</leafValues></_>
        <_>
          <internalNodes>
            0 -1 0 -1.8198810517787933e-02</internalNodes>
          <leafValues>
            7.3999881744384766e-01 -8.3468014001846313e-01</leafValues></_>
        <_>
          <internalNodes>
            0 -1 22 2.1349850576370955e-03</internalNodes>
          <leafValues>
            -9.9403965473175049e-01 5.9545481204986572e-01</leafValues></_></weakClassifiers></_>
    <!-- stage 2 -->
    <_>
      <maxWeakCount>5</maxWeakCount>
      <stageThreshold>-1.2595074176788330e+00</stageThreshold>
      <weakClassifiers>
        <_>
          <internalNodes>
            0 -1 3 -2.3393610492348671e-02</internalNodes>
          <leafValues>
            7.3006135225296021e-01 -9.4335514307022095e-01</leafValues></_>
        <_>
          <internalNodes>
            0 -1 5 -7.0348486304283142e-02</internalNodes>
          <leafValues>
            6.7554283142089844e-01 -7.7701103687286377e-01</leafValues></_>
        <_>
          <internalNodes>
            0 -1 29 1.6683150082826614e-02</internalNodes>
          <leafValues>
            -6.9058477878570557e-01 7.9468613862991333e-01</leafValues></_>
        <_>
          <internalNodes>
            0 -1 23 7.2478926740586758e-03</internalNodes>
          <leafValues>
            -7.6553475856781006e-01 7.1560752391815186e-01</leafValues></_>
        <_>
          <internalNodes>
            0 -1 13 -5.5006635375320911e-04</internalNodes>
          <leafValues>
            -9.9034279584884644e-01 4.6442437171936035e-01</leafValues></_></weakClassifiers></_>
    <!-- stage 3 -->
    <_>
      <maxWeakCount>6</maxWeakCount>
      <stageThreshold>-1.4850883483886719e+00</stageThreshold>
      <weakClassifiers>
        <_>
          <internalNodes>
            0 -1 2 -1.2346552684903145e-02</internalNodes>
          <leafValues>
            6.9814652204513550e-01 -8.3725911378860474e-01</leafValues></_>
        <_>
          <internalNodes>
            0 -1 26 -1.5620648860931396e-02</internalNodes>
          <leafValues>
            4.9600180983543396e-01 -8.6412447690963745e-01</leafValues></_>
        <_>
          <internalNodes>
            0 -1 19 -1.0059770429506898e-03</internalNodes>
          <leafValues>
            3.9790213108062744e-01 -9.5158058404922485e-01</leafValues></_>
        <_>
          <internalNodes>
            0 -1 4 2.3990049958229065e-03</internalNodes>
          <leafValues>
            -9.8297691345214844e-01 3.4794828295707703e-01</leafValues></_>
        <_>
          <internalNodes>
            0 -1 10 3.2269060611724854e-02</internalNodes>
          <leafValues>
            -9.1202169656753540e-01 3.4015884995460510e-01</leafValues></_>
        <_>
          <internalNodes>
            0 -1 24 2.3375626187771559e-03</internalNodes>
          <leafValues>
            -8.6971402168273926e-01 3.8307145237922668e-01</leafValues></_></weakClassifiers></_>
    <!-- stage 4 -->
    <_>
      <maxWeakCount>5</maxWeakCount>
      <stageThreshold>-1.3037016391754150e+00</stageThreshold>
      <weakClassifiers>
        <_>
          <internalNodes>
            0 -1 17 3.9847572334110737e-03</internalNodes>
          <leafValues>
            -9.3888890743255615e-01 5.9516131877899170e-01</leafValues></_>
        <_>
          <internalNodes>
            0 -1 20 -1.1230851523578167e-03</internalNodes>
          <leafValues>
            -9.5080476999282837e-01 4.3914127349853516e-01</leafValues></_>
        <_>
          <internalNodes>
            0 -1 28 -3.6091800779104233e-02</internalNodes>
          <leafValues>
            5.5707728862762451e-01 -7.0623195171356201e-01</leafValues></_>
        <_>
          <internalNodes>
            0 -1 7 -2.6767957955598831e-02</internalNodes>
          <leafValues>
            5.9231138229370117e-01 -6.8215692043304443e-01</leafValues></_>
        <_>
          <internalNodes>
            0 -1 18 -2.3854607716202736e-03</internalNodes>
          <leafValues>
            4.4033065438270569e-01 -9.1674405336380005e-01</leafValues></_></weakClassifiers></_>
    <!-- stage 5 -->
    <_>
      <maxWeakCount>5</maxWeakCount>
      <stageThreshold>-8.5108679533004761e-01</stageThreshold>
      <weakClassifiers>
        <_>
          <internalNodes>
            0 -1 9 -1.8195414543151855e-01</internalNodes>
          <leafValues>
            6.4636212587356567e-01 -8.7081336975097656e-01</leafValues></_>
        <_>
          <internalNodes>
            0 -1 11 -4.3220538645982742e-03</internalNodes>
          <leafValues>
            -9.5425832271575928e-01 3.8937327265739441e-01</leafValues></_>
        <_>
          <internalNodes>
            0 -1 8 -1.4821307267993689e-03</internalNodes>
          <leafValues>
            3.9812317490577698e-01 -9.4994217157363892e-01</leafValues></_>
        <_>
          <internalNodes>
            0 -1 14 6.8287542089819908e-03</internalNodes>
          <leafValues>
            2.5357639789581299e-01 -9.6725881099700928e-01</leafValues></_>
        <_>
          <internalNodes>
            0 -1 12 5.6343236938118935e-03</internalNodes>
          <leafValues>
            -9.5920592546463013e-01 3.2671916484832764e-01</leafValues></_></weakClassifiers></_>
    <!-- stage 6 -->
    <_>
      <maxWeakCount>5</maxWeakCount>
      <stageThreshold>-4.8633792996406555e-01</stageThreshold>
      <weakClassifiers>
        <_>
          <internalNodes>
            0 -1 25 1.3886892702430487e-03</internalNodes>
          <leafValues>
            5.9967845678329468e-01 -9.7191011905670166e-01</leafValues></_>
        <_>
          <internalNodes>
            0 -1 27 1.5849206596612930e-02</internalNodes>
          <leafValues>
            -8.3167380094528198e-01 5.2237176895141602e-01</leafValues></_>
        <_>
          <internalNodes>
            0 -1 6 -6.3738180324435234e-03</internalNodes>
          <leafValues>
            6.6567718982696533e-01 -5.9491807222366333e-01</leafValues></_>
        <_>
          <internalNodes>
            0 -1 15 2.4361521936953068e-03</internalNodes>
          <leafValues>
            -9.7456580400466919e-01 3.6512169241905212e-01</leafValues></_>
        <_>
          <internalNodes>
            0 -1 13 5.3091661538928747e-04</internalNodes>
          <leafValues>
            2.8644710779190063e-01 -9.6263921260833740e-01</leafValues></_></weakClassifiers></_></stages>
  <features>
    <_>
      <rects>
        <_>
          0 24 10 9 -1.</_>
        <_>
          5 24 5 9 2.</_></rects>
      <tilted>0</tilted></_>
    <_>
      <rects>
        <_>
          1 7 24 42 -1.</_>
        <_>
          9 21 8 14 9.</_></rects>
      <tilted>0</tilted></_>
    <_>
      <rects>
        <_>
          1 23 8 11 -1.</_>
        <_>
          5 23 4 11 2.</_></rects>
      <tilted>0</tilted></_>
    <_>
      <rects>
        <_>
          1 30 24 5 -1.</_>
        <_>
          7 30 12 5 2.</_></rects>
      <tilted>0</tilted></_>
    <_>
      <rects>
        <_>
          2 27 19 16 -1.</_>
        <_>
          2 35 19 8 2.</_></rects>
      <tilted>0</tilted></_>
    <_>
      <rects>
        <_>
          4 6 17 20 -1.</_>
        <_>
          4 16 17 10 2.</_></rects>
      <tilted>0</tilted></_>
    <_>
      <rects>
        <_>
          4 26 4 4 -1.</_>
        <_>
          4 26 4 2 2.</_></rects>
      <tilted>1</tilted></_>
    <_>
      <rects>
        <_>
          5 9 15 10 -1.</_>
        <_>
          5 14 15 5 2.</_></rects>
      <tilted>0</tilted></_>
    <_>
      <rects>
        <_>
          5 19 15 4 -1.</_>
        <_>
          10 24 5 4 3.</_></rects>
      <tilted>1</tilted></_>
    <_>
      <rects>
        <_>
          7 4 18 48 -1.</_>
        <_>
          13 20 6 16 9.</_></rects>
      <tilted>0</tilted></_>
    <_>
      <rects>
        <_>
          7 19 18 19 -1.</_>
        <_>
          16 19 9 19 2.</_></rects>
      <tilted>0</tilted></_>
    <_>
      <rects>
        <_>
          9 22 6 12 -1.</_>
        <_>
          11 26 2 4 9.</_></rects>
      <tilted>0</tilted></_>
    <_>
      <rects>
        <_>
          9 27 6 2 -1.</_>
        <_>
          12 27 3 2 2.</_></rects>
      <tilted>0</tilted></_>
    <_>
      <rects>
        <_>
          9 28 3 4 -1.</_>
        <_>
          9 30 3 2 2.</_></rects>
      <tilted>0</tilted></_>
    <_>
      <rects>
        <_>
          10 20 4 15 -1.</_>
        <_>
          12 20 2 15 2.</_></rects>
      <tilted>0</tilted></_>
    <_>
      <rects>
        <_>
          11 19 4 7 -1.</_>
        <_>
          11 19 2 7 2.</_></rects>
      <tilted>1</tilted></_>
    <_>
      <rects>
        <_>
          11 25 6 6 -1.</_>
        <_>
          13 27 2 2 9.</_></rects>
      <tilted>0</tilted></_>
    <_>
      <rects>
        <_>
          11 25 4 4 -1.</_>
        <_>
          13 25 2 4 2.</_></rects>
      <tilted>0</tilted></_>
    <_>
      <rects>
        <_>
          11 25 4 3 -1.</_>
        <_>
          10 26 4 1 3.</_></rects>
      <tilted>1</tilted></_>
    <_>
      <rects>
        <_>
          12 22 4 2 -1.</_>
        <_>
          12 22 4 1 2.</_></rects>
      <tilted>1</tilted></_>
    <_>
      <rects>
        <_>
          13 23 2 6 -1.</_>
        <_>
          11 25 2 2 3.</_></rects>
      <tilted>1</tilted></_>
    <_>
      <rects>
        <_>
          13 24 3 9 -1.</_>
        <_>
          13 27 3 3 3.</_></rects>
      <tilted>0</tilted></_>
    <_>
      <rects>
        <_>
          13 26 2 2 -1.</_>
        <_>
          13 26 2 1 2.</_></rects>
      <tilted>1</tilted></_>
    <_>
      <rects>
        <_>
          14 24 1 9 -1.</_>
        <_>
          14 27 1 3 3.</_></rects>
      <tilted>0</tilted></_>
    <_>
      <rects>
        <_>
          14 25 1 4 -1.</_>
        <_>
          14 27 1 2 2.</_></rects>
      <tilted>0</tilted></_>
    <_>
      <rects>
        <_>
          15 20 3 8 -1.</_>
        <_>
          15 20 3 4 2.</_></rects>
      <tilted>1</tilted></_>
    <_>
      <rects>
        <_>
          16 24 9 4 -1.</_>
        <_>
          19 27 3 4 3.</_></rects>
      <tilted>1</tilted></_>
    <_>
      <rects>
        <_>
          17 24 8 10 -1.</_>
        <_>
          21 24 4 10 2.</_></rects>
      <tilted>0</tilted></_>
    <_>
      <rects>
        <_>
          18 15 6 24 -1.</_>
        <_>
          20 23 2 8 9.</_></rects>
      <tilted>0</tilted></_>
    <_>
      <rects>
        <_>
          19 24 6 10 -1.</_>
        <_>
          22 24 3 10 2.</_></rects>
      <tilted>0</tilted></_></features></cascade>
</opencv_storage>
