<?xml version="1.0"?>
<opencv_storage>
<cascade>
  <stageType>BOOST</stageType>
  <featureType>HAAR</featureType>
  <height>35</height>
  <width>35</width>
  <stageParams>
    <boostType>GAB</boostType>
    <minHitRate>9.9900001287460327e-01</minHitRate>
    <maxFalseAlarm>5.0000000000000000e-01</maxFalseAlarm>
    <weightTrimRate>9.4999999999999996e-01</weightTrimRate>
    <maxDepth>1</maxDepth>
    <maxWeakCount>100</maxWeakCount></stageParams>
  <featureParams>
    <maxCatCount>0</maxCatCount>
    <featSize>1</featSize>
    <mode>ALL</mode></featureParams>
  <stageNum>3</stageNum>
  <stages>
    <!-- stage 0 -->
    <_>
      <maxWeakCount>3</maxWeakCount>
      <stageThreshold>5.3007042407989502e-01</stageThreshold>
      <weakClassifiers>
        <_>
          <internalNodes>
            0 -1 3 2.6106289587914944e-03</internalNodes>
          <leafValues>
            5.8793169260025024e-01 -1.</leafValues></_>
        <_>
          <internalNodes>
            0 -1 0 3.5334858694113791e-05</internalNodes>
          <leafValues>
            3.6838561296463013e-01 -9.5165252685546875e-01</leafValues></_>
        <_>
          <internalNodes>
            0 -1 1 -1.7439373768866062e-03</internalNodes>
          <leafValues>
            9.6799933910369873e-01 -4.2624688148498535e-01</leafValues></_></weakClassifiers></_>
    <!-- stage 1 -->
    <_>
      <maxWeakCount>1</maxWeakCount>
      <stageThreshold>6.9707256555557251e-01</stageThreshold>
      <weakClassifiers>
        <_>
          <internalNodes>
            0 -1 0 -2.8997717890888453e-05</internalNodes>
          <leafValues>
            -1. 6.9707256555557251e-01</leafValues></_></weakClassifiers></_>
    <!-- stage 2 -->
    <_>
      <maxWeakCount>3</maxWeakCount>
      <stageThreshold>-1.1856931447982788e+00</stageThreshold>
      <weakClassifiers>
        <_>
          <internalNodes>
            0 -1 5 -5.0501530058681965e-03</internalNodes>
          <leafValues>
            -9.5942026376724243e-01 7.1948051452636719e-01</leafValues></_>
        <_>
          <internalNodes>
            0 -1 2 -4.4481977820396423e-03</internalNodes>
          <leafValues>
            -9.6625757217407227e-01 6.5786391496658325e-01</leafValues></_>
        <_>
          <internalNodes>
            0 -1 4 3.7722468841820955e-03</internalNodes>
          <leafValues>
            5.0463622808456421e-01 -9.3891608715057373e-01</leafValues></_></weakClassifiers></_></stages>
  <features>
    <_>
      <rects>
        <_>
          0 3 1 12 -1.</_>
        <_>
          0 6 1 6 2.</_></rects>
      <tilted>0</tilted></_>
    <_>
      <rects>
        <_>
          0 22 6 3 -1.</_>
        <_>
          2 22 2 3 3.</_></rects>
      <tilted>0</tilted></_>
    <_>
      <rects>
        <_>
          8 18 7 6 -1.</_>
        <_>
          6 20 7 2 3.</_></rects>
      <tilted>1</tilted></_>
    <_>
      <rects>
        <_>
          9 12 17 6 -1.</_>
        <_>
          9 12 17 3 2.</_></rects>
      <tilted>1</tilted></_>
    <_>
      <rects>
        <_>
          28 17 6 7 -1.</_>
        <_>
          30 19 2 7 3.</_></rects>
      <tilted>1</tilted></_>
    <_>
      <rects>
        <_>
          28 24 6 5 -1.</_>
        <_>
          28 24 3 5 2.</_></rects>
      <tilted>1</tilted></_></features></cascade>
</opencv_storage>
